digraph Tree {
node [shape=box] ;
0 [label="gyr_phone_x_temp_std_ws_120 <= 0.243\ngini = 0.436\nsamples = 441\nvalue = [20, 312, 109]\nclass = labelOntable"] ;
1 [label="gini = 0.0\nsamples = 286\nvalue = [0, 286, 0]\nclass = labelOntable"] ;
0 -> 1 [labeldistance=2.5, labelangle=45, headlabel="True"] ;
2 [label="mag_phone_z_max_freq <= 0.0\ngini = 0.461\nsamples = 155\nvalue = [20, 26, 109]\nclass = labelWalking"] ;
0 -> 2 [labeldistance=2.5, labelangle=-45, headlabel="False"] ;
3 [label="gini = 0.0\nsamples = 15\nvalue = [0, 15, 0]\nclass = labelOntable"] ;
2 -> 3 ;
4 [label="acc_phone_y_freq_0.0_Hz_ws_40 <= 203.785\ngini = 0.367\nsamples = 140\nvalue = [20, 11, 109]\nclass = labelWalking"] ;
2 -> 4 ;
5 [label="mag_phone_z_max_freq <= 0.009\ngini = 0.204\nsamples = 106\nvalue = [2, 10, 94]\nclass = labelWalking"] ;
4 -> 5 ;
6 [label="acc_phone_y_freq_0.0_Hz_ws_40 <= 0.815\ngini = 0.432\nsamples = 19\nvalue = [0, 6, 13]\nclass = labelWalking"] ;
5 -> 6 ;
7 [label="gini = 0.0\nsamples = 12\nvalue = [0, 0, 12]\nclass = labelWalking"] ;
6 -> 7 ;
8 [label="gyr_phone_x_temp_std_ws_120 <= 0.29\ngini = 0.245\nsamples = 7\nvalue = [0, 6, 1]\nclass = labelOntable"] ;
6 -> 8 ;
9 [label="gini = 0.0\nsamples = 5\nvalue = [0, 5, 0]\nclass = labelOntable"] ;
8 -> 9 ;
10 [label="gini = 0.5\nsamples = 2\nvalue = [0, 1, 1]\nclass = labelOntable"] ;
8 -> 10 ;
11 [label="acc_phone_y_freq_0.0_Hz_ws_40 <= 83.136\ngini = 0.131\nsamples = 87\nvalue = [2, 4, 81]\nclass = labelWalking"] ;
5 -> 11 ;
12 [label="acc_phone_x_freq_1.9_Hz_ws_40 <= 4.228\ngini = 0.03\nsamples = 66\nvalue = [0, 1, 65]\nclass = labelWalking"] ;
11 -> 12 ;
13 [label="gini = 0.0\nsamples = 62\nvalue = [0, 0, 62]\nclass = labelWalking"] ;
12 -> 13 ;
14 [label="acc_phone_x_freq_1.9_Hz_ws_40 <= 4.659\ngini = 0.375\nsamples = 4\nvalue = [0, 1, 3]\nclass = labelWalking"] ;
12 -> 14 ;
15 [label="gini = 0.5\nsamples = 2\nvalue = [0, 1, 1]\nclass = labelOntable"] ;
14 -> 15 ;
16 [label="gini = 0.0\nsamples = 2\nvalue = [0, 0, 2]\nclass = labelWalking"] ;
14 -> 16 ;
17 [label="gyr_phone_x_temp_std_ws_120 <= 0.418\ngini = 0.39\nsamples = 21\nvalue = [2, 3, 16]\nclass = labelWalking"] ;
11 -> 17 ;
18 [label="gini = 0.0\nsamples = 9\nvalue = [0, 0, 9]\nclass = labelWalking"] ;
17 -> 18 ;
19 [label="gyr_phone_x_temp_std_ws_120 <= 0.43\ngini = 0.569\nsamples = 12\nvalue = [2, 3, 7]\nclass = labelWalking"] ;
17 -> 19 ;
20 [label="gini = 0.444\nsamples = 3\nvalue = [2, 1, 0]\nclass = labelInlift"] ;
19 -> 20 ;
21 [label="gyr_phone_y_freq_1.0_Hz_ws_40 <= -0.332\ngini = 0.346\nsamples = 9\nvalue = [0, 2, 7]\nclass = labelWalking"] ;
19 -> 21 ;
22 [label="gini = 0.444\nsamples = 3\nvalue = [0, 2, 1]\nclass = labelOntable"] ;
21 -> 22 ;
23 [label="gini = 0.0\nsamples = 6\nvalue = [0, 0, 6]\nclass = labelWalking"] ;
21 -> 23 ;
24 [label="acc_phone_y_freq_0.0_Hz_ws_40 <= 258.855\ngini = 0.524\nsamples = 34\nvalue = [18, 1, 15]\nclass = labelInlift"] ;
4 -> 24 ;
25 [label="acc_phone_x_freq_1.9_Hz_ws_40 <= 0.397\ngini = 0.447\nsamples = 26\nvalue = [18, 1, 7]\nclass = labelInlift"] ;
24 -> 25 ;
26 [label="gyr_phone_x_temp_std_ws_120 <= 0.459\ngini = 0.188\nsamples = 19\nvalue = [17, 0, 2]\nclass = labelInlift"] ;
25 -> 26 ;
27 [label="mag_phone_z_max_freq <= 1.115\ngini = 0.444\nsamples = 6\nvalue = [4, 0, 2]\nclass = labelInlift"] ;
26 -> 27 ;
28 [label="gini = 0.0\nsamples = 2\nvalue = [0, 0, 2]\nclass = labelWalking"] ;
27 -> 28 ;
29 [label="gini = 0.0\nsamples = 4\nvalue = [4, 0, 0]\nclass = labelInlift"] ;
27 -> 29 ;
30 [label="gini = 0.0\nsamples = 13\nvalue = [13, 0, 0]\nclass = labelInlift"] ;
26 -> 30 ;
31 [label="mag_phone_z_max_freq <= 0.428\ngini = 0.449\nsamples = 7\nvalue = [1, 1, 5]\nclass = labelWalking"] ;
25 -> 31 ;
32 [label="gini = 0.667\nsamples = 3\nvalue = [1, 1, 1]\nclass = labelInlift"] ;
31 -> 32 ;
33 [label="gini = 0.0\nsamples = 4\nvalue = [0, 0, 4]\nclass = labelWalking"] ;
31 -> 33 ;
34 [label="gini = 0.0\nsamples = 8\nvalue = [0, 0, 8]\nclass = labelWalking"] ;
24 -> 34 ;
}